svm_type c_svc
kernel_type linear
nr_class 5
total_sv 16
rho -4.00893 -1.92187 -2.15706 -3.82866 -0.435704 -1.56434 -1.09832 -2.62777 2.21407 10.1251
label 1 2 3 4 5
nr_sv 3 4 3 2 4
SV
36.52662393777832 0 0 0 1:0.352 2:0.108 
0 0 5.372213779110586 11.75344506173898 1:0.346 2:0.17 
0 8.648626631590796 1.082714637090871 26.82305384744034 1:0.2 2:0.256 
-23.2191959458361 0 0 0 1:0.586 2:0.082 
-10.53275262826959 0 0 0 1:0.586 2:0.136 
-2.774675363672635 4.612376112763511 1.071305618296147 41.03408199482884 1:0.586 2:0.22 
-0 0 9.483225522239717 0 1:0.684 2:0.236 
-6.489914574021913 -0 0 0 1:0.106 2:0.728 
-2.158712057568882 -4.612376112763511 0 23.89032418971076 1:0.182 2:0.74 
-0 -0 20.51535558682397 0.380236757384585 1:0.286 2:0.824 
-6.454928416201457 -10.55453114053587 -0 85.30967750752686 1:0.604 2:0.664 
-0 -0 -20.51535558682397 0 1:0.598 2:0.812 
-38.57649890917932 -0 -0 -0 1:0.36 2:0.426 
-0 -0 -24.27056094709534 -0 1:0.364 2:0.518 
-0 -0 -0 -85.30967750752686 1:0.542 2:0.524 
-0 -41.03408199482884 -0 -0 1:0.512 2:0.428 
