svm_type c_svc
kernel_type linear
nr_class 3
total_sv 9
rho -11.719 0.524937 4.72784
label 0 1 2
nr_sv 2 5 2
SV
70.34257292260568 2.707304323154166 1:0.528 2:0.668 3:0.8348 
30.81406239419318 0 1:0.672 2:0.594 3:0.8348 
-0 3.523126417286291 1:0.43 2:0.896 3:0.8348 
-100 0 1:0.632 2:0.768 3:0.8348 
-0 13.70628709015143 1:0.768 2:0.69 3:0.0348 
-1.156635316798869 0 1:0.81 2:0.626 3:0.0348 
-0 69.63587584173649 1:0.834 2:0.86 3:0.0348 
-1.09682523699667 -86.86528934917421 1:0.68 2:0.884 3:0.0008 
-1.610479086157496 -0 1:0.406 2:0.87 3:0.0008 
